<?xml version="1.0"?>
<opencv_storage>
<cascade>
  <stageType>BOOST</stageType>
  <featureType>HAAR</featureType>
  <height>24</height>
  <width>24</width>
  <stageParams>
    <boostType>GAB</boostType>
    <minHitRate>9.9500000476837158e-01</minHitRate>
    <maxFalseAlarm>5.0000000000000000e-01</maxFalseAlarm>
    <weightTrimRate>9.4999999999999996e-01</weightTrimRate>
    <maxDepth>1</maxDepth>
    <maxWeakCount>100</maxWeakCount></stageParams>
  <featureParams>
    <maxCatCount>0</maxCatCount>
    <featSize>1</featSize>
    <mode>BASIC</mode></featureParams>
  <stageNum>12</stageNum>
  <stages>
    <!-- stage 0 -->
    <_>
      <maxWeakCount>2</maxWeakCount>
      <stageThreshold>-1.7041327431797981e-02</stageThreshold>
      <weakClassifiers>
        <_>
          <internalNodes>
            0 -1 35 2.2023625206202269e-03</internalNodes>
          <leafValues>
            -9.1213870048522949e-01 9.2043596506118774e-01</leafValues></_>
        <_>
          <internalNodes>
            0 -1 7 2.9713225364685059e-01</internalNodes>
          <leafValues>
            -8.4410399198532104e-01 8.9509737491607666e-01</leafValues></_></weakClassifiers></_>
    <!-- stage 1 -->
    <_>
      <maxWeakCount>2</maxWeakCount>
      <stageThreshold>-2.6301515102386475e-01</stageThreshold>
      <weakClassifiers>
        <_>
          <internalNodes>
            0 -1 28 5.4409280419349670e-03</internalNodes>
          <leafValues>
            -8.8778054714202881e-01 8.4931504726409912e-01</leafValues></_>
        <_>
          <internalNodes>
            0 -1 19 1.4772281050682068e-02</internalNodes>
          <leafValues>
            -9.1647344827651978e-01 6.2476539611816406e-01</leafValues></_></weakClassifiers></_>
    <!-- stage 2 -->
    <_>
      <maxWeakCount>2</maxWeakCount>
      <stageThreshold>-1.8320818245410919e-01</stageThreshold>
      <weakClassifiers>
        <_>
          <internalNodes>
            0 -1 29 -6.4193177968263626e-03</internalNodes>
          <leafValues>
            7.4802368879318237e-01 -9.0828400850296021e-01</leafValues></_>
        <_>
          <internalNodes>
            0 -1 2 3.1516859307885170e-03</internalNodes>
          <leafValues>
            -7.3044329881668091e-01 7.2507584095001221e-01</leafValues></_></weakClassifiers></_>
    <!-- stage 3 -->
    <_>
      <maxWeakCount>4</maxWeakCount>
      <stageThreshold>-6.4231950044631958e-01</stageThreshold>
      <weakClassifiers>
        <_>
          <internalNodes>
            0 -1 15 3.0506449937820435e-01</internalNodes>
          <leafValues>
            -6.2293273210525513e-01 8.1706637144088745e-01</leafValues></_>
        <_>
          <internalNodes>
            0 -1 11 4.5604100450873375e-03</internalNodes>
          <leafValues>
            -8.6904954910278320e-01 5.8701407909393311e-01</leafValues></_>
        <_>
          <internalNodes>
            0 -1 27 3.1415319535881281e-03</internalNodes>
          <leafValues>
            -9.2951250076293945e-01 3.5133099555969238e-01</leafValues></_>
        <_>
          <internalNodes>
            0 -1 43 2.2058596368879080e-03</internalNodes>
          <leafValues>
            -8.3177739381790161e-01 3.3917620778083801e-01</leafValues></_></weakClassifiers></_>
    <!-- stage 4 -->
    <_>
      <maxWeakCount>3</maxWeakCount>
      <stageThreshold>4.8783149570226669e-02</stageThreshold>
      <weakClassifiers>
        <_>
          <internalNodes>
            0 -1 20 -8.9449547231197357e-03</internalNodes>
          <leafValues>
            6.4537036418914795e-01 -9.1481482982635498e-01</leafValues></_>
        <_>
          <internalNodes>
            0 -1 12 1.6890071332454681e-02</internalNodes>
          <leafValues>
            -8.2313358783721924e-01 4.9759623408317566e-01</leafValues></_>
        <_>
          <internalNodes>
            0 -1 40 3.1556705944240093e-03</internalNodes>
          <leafValues>
            -9.0691548585891724e-01 4.6600174903869629e-01</leafValues></_></weakClassifiers></_>
    <!-- stage 5 -->
    <_>
      <maxWeakCount>4</maxWeakCount>
      <stageThreshold>-6.0206794738769531e-01</stageThreshold>
      <weakClassifiers>
        <_>
          <internalNodes>
            0 -1 14 2.8873949777334929e-03</internalNodes>
          <leafValues>
            -7.7702701091766357e-01 6.4516127109527588e-01</leafValues></_>
        <_>
          <internalNodes>
            0 -1 5 5.4673433303833008e-01</internalNodes>
          <leafValues>
            -5.9320175647735596e-01 6.2815642356872559e-01</leafValues></_>
        <_>
          <internalNodes>
            0 -1 13 6.9433907046914101e-03</internalNodes>
          <leafValues>
            -8.4746456146240234e-01 4.1851815581321716e-01</leafValues></_>
        <_>
          <internalNodes>
            0 -1 41 1.0950133437290788e-03</internalNodes>
          <leafValues>
            -9.2356741428375244e-01 3.4964266419410706e-01</leafValues></_></weakClassifiers></_>
    <!-- stage 6 -->
    <_>
      <maxWeakCount>5</maxWeakCount>
      <stageThreshold>-4.9681213498115540e-01</stageThreshold>
      <weakClassifiers>
        <_>
          <internalNodes>
            0 -1 8 3.4029984474182129e-01</internalNodes>
          <leafValues>
            -6.7872649431228638e-01 6.8143355846405029e-01</leafValues></_>
        <_>
          <internalNodes>
            0 -1 3 1.3796628918498755e-03</internalNodes>
          <leafValues>
            -6.8789488077163696e-01 5.4625469446182251e-01</leafValues></_>
        <_>
          <internalNodes>
            0 -1 33 3.7063665222376585e-03</internalNodes>
          <leafValues>
            -9.8067879676818848e-01 3.3479699492454529e-01</leafValues></_>
        <_>
          <internalNodes>
            0 -1 24 -2.9972083866596222e-03</internalNodes>
          <leafValues>
            2.8219118714332581e-01 -9.2886841297149658e-01</leafValues></_>
        <_>
          <internalNodes>
            0 -1 32 4.4022081419825554e-03</internalNodes>
          <leafValues>
            -8.6988174915313721e-01 2.5282102823257446e-01</leafValues></_></weakClassifiers></_>
    <!-- stage 7 -->
    <_>
      <maxWeakCount>5</maxWeakCount>
      <stageThreshold>-2.8950738906860352e-01</stageThreshold>
      <weakClassifiers>
        <_>
          <internalNodes>
            0 -1 45 1.9419878721237183e-02</internalNodes>
          <leafValues>
            -6.3009405136108398e-01 6.3142579793930054e-01</leafValues></_>
        <_>
          <internalNodes>
            0 -1 1 4.1390042752027512e-03</internalNodes>
          <leafValues>
            -5.7065027952194214e-01 5.3107088804244995e-01</leafValues></_>
        <_>
          <internalNodes>
            0 -1 25 1.7486085416749120e-03</internalNodes>
          <leafValues>
            -7.6332777738571167e-01 4.0341782569885254e-01</leafValues></_>
        <_>
          <internalNodes>
            0 -1 23 1.1182881426066160e-03</internalNodes>
          <leafValues>
            -7.0560055971145630e-01 3.6227411031723022e-01</leafValues></_>
        <_>
          <internalNodes>
            0 -1 42 -1.2697392958216369e-04</internalNodes>
          <leafValues>
            -9.5617616176605225e-01 2.4500484764575958e-01</leafValues></_></weakClassifiers></_>
    <!-- stage 8 -->
    <_>
      <maxWeakCount>5</maxWeakCount>
      <stageThreshold>-5.0013911724090576e-01</stageThreshold>
      <weakClassifiers>
        <_>
          <internalNodes>
            0 -1 36 2.5305100716650486e-03</internalNodes>
          <leafValues>
            -7.2811919450759888e-01 5.9685623645782471e-01</leafValues></_>
        <_>
          <internalNodes>
            0 -1 8 4.6618854999542236e-01</internalNodes>
          <leafValues>
            -5.9410029649734497e-01 5.3940391540527344e-01</leafValues></_>
        <_>
          <internalNodes>
            0 -1 30 2.4019032716751099e-03</internalNodes>
          <leafValues>
            -8.8091635704040527e-01 3.4389173984527588e-01</leafValues></_>
        <_>
          <internalNodes>
            0 -1 4 3.0047919601202011e-02</internalNodes>
          <leafValues>
            -7.4233847856521606e-01 3.4463369846343994e-01</leafValues></_>
        <_>
          <internalNodes>
            0 -1 39 -2.2723034489899874e-03</internalNodes>
          <leafValues>
            2.2485880553722382e-01 -9.1883164644241333e-01</leafValues></_></weakClassifiers></_>
    <!-- stage 9 -->
    <_>
      <maxWeakCount>6</maxWeakCount>
      <stageThreshold>-9.4809257984161377e-01</stageThreshold>
      <weakClassifiers>
        <_>
          <internalNodes>
            0 -1 26 2.2351429797708988e-03</internalNodes>
          <leafValues>
            -7.9914528131484985e-01 5.7078850269317627e-01</leafValues></_>
        <_>
          <internalNodes>
            0 -1 21 9.0958938002586365e-02</internalNodes>
          <leafValues>
            -6.4437389373779297e-01 4.2550709843635559e-01</leafValues></_>
        <_>
          <internalNodes>
            0 -1 16 1.7049789894372225e-03</internalNodes>
          <leafValues>
            3.3236703276634216e-01 -7.6640582084655762e-01</leafValues></_>
        <_>
          <internalNodes>
            0 -1 0 1.0499561205506325e-02</internalNodes>
          <leafValues>
            -5.9960830211639404e-01 3.5604023933410645e-01</leafValues></_>
        <_>
          <internalNodes>
            0 -1 17 -1.4304637443274260e-03</internalNodes>
          <leafValues>
            -9.2493098974227905e-01 2.4969716370105743e-01</leafValues></_>
        <_>
          <internalNodes>
            0 -1 34 -9.1619389422703534e-05</internalNodes>
          <leafValues>
            -7.6349508762359619e-01 2.4180975556373596e-01</leafValues></_></weakClassifiers></_>
    <!-- stage 10 -->
    <_>
      <maxWeakCount>6</maxWeakCount>
      <stageThreshold>-5.3154641389846802e-01</stageThreshold>
      <weakClassifiers>
        <_>
          <internalNodes>
            0 -1 18 1.1759939603507519e-02</internalNodes>
          <leafValues>
            5.2941179275512695e-01 -8.9757412672042847e-01</leafValues></_>
        <_>
          <internalNodes>
            0 -1 31 -7.3550585657358170e-03</internalNodes>
          <leafValues>
            3.9229798316955566e-01 -6.3288646936416626e-01</leafValues></_>
        <_>
          <internalNodes>
            0 -1 3 2.8977473266422749e-03</internalNodes>
          <leafValues>
            -5.6055796146392822e-01 4.2849281430244446e-01</leafValues></_>
        <_>
          <internalNodes>
            0 -1 46 -5.1024220883846283e-03</internalNodes>
          <leafValues>
            5.7603847980499268e-01 -4.2702403664588928e-01</leafValues></_>
        <_>
          <internalNodes>
            0 -1 44 4.7123245894908905e-04</internalNodes>
          <leafValues>
            -5.9928441047668457e-01 3.7468066811561584e-01</leafValues></_>
        <_>
          <internalNodes>
            0 -1 10 1.1428932659327984e-02</internalNodes>
          <leafValues>
            1.8482957780361176e-01 -9.2908936738967896e-01</leafValues></_></weakClassifiers></_>
    <!-- stage 11 -->
    <_>
      <maxWeakCount>5</maxWeakCount>
      <stageThreshold>-5.4394888877868652e-01</stageThreshold>
      <weakClassifiers>
        <_>
          <internalNodes>
            0 -1 22 6.7218840122222900e-03</internalNodes>
          <leafValues>
            -8.2574260234832764e-01 6.0000002384185791e-01</leafValues></_>
        <_>
          <internalNodes>
            0 -1 37 -3.1484170904150233e-05</internalNodes>
          <leafValues>
            -8.7587851285934448e-01 2.9272800683975220e-01</leafValues></_>
        <_>
          <internalNodes>
            0 -1 6 6.7390114068984985e-01</internalNodes>
          <leafValues>
            -4.5068657398223877e-01 5.1497817039489746e-01</leafValues></_>
        <_>
          <internalNodes>
            0 -1 9 -2.6366084814071655e-02</internalNodes>
          <leafValues>
            -8.7084197998046875e-01 2.3349387943744659e-01</leafValues></_>
        <_>
          <internalNodes>
            0 -1 38 1.1270033428445458e-03</internalNodes>
          <leafValues>
            -8.5144406557083130e-01 2.0625838637351990e-01</leafValues></_></weakClassifiers></_></stages>
  <features>
    <_>
      <rects>
        <_>
          0 4 4 16 -1.</_>
        <_>
          2 4 2 16 2.</_></rects>
      <tilted>0</tilted></_>
    <_>
      <rects>
        <_>
          0 10 2 4 -1.</_>
        <_>
          1 10 1 4 2.</_></rects>
      <tilted>0</tilted></_>
    <_>
      <rects>
        <_>
          0 10 2 5 -1.</_>
        <_>
          1 10 1 5 2.</_></rects>
      <tilted>0</tilted></_>
    <_>
      <rects>
        <_>
          0 11 3 2 -1.</_>
        <_>
          1 11 1 2 3.</_></rects>
      <tilted>0</tilted></_>
    <_>
      <rects>
        <_>
          0 13 21 5 -1.</_>
        <_>
          7 13 7 5 3.</_></rects>
      <tilted>0</tilted></_>
    <_>
      <rects>
        <_>
          1 0 22 24 -1.</_>
        <_>
          1 8 22 8 3.</_></rects>
      <tilted>0</tilted></_>
    <_>
      <rects>
        <_>
          1 0 23 24 -1.</_>
        <_>
          1 8 23 8 3.</_></rects>
      <tilted>0</tilted></_>
    <_>
      <rects>
        <_>
          1 1 22 21 -1.</_>
        <_>
          1 8 22 7 3.</_></rects>
      <tilted>0</tilted></_>
    <_>
      <rects>
        <_>
          1 1 23 21 -1.</_>
        <_>
          1 8 23 7 3.</_></rects>
      <tilted>0</tilted></_>
    <_>
      <rects>
        <_>
          3 9 16 4 -1.</_>
        <_>
          11 9 8 4 2.</_></rects>
      <tilted>0</tilted></_>
    <_>
      <rects>
        <_>
          4 9 16 8 -1.</_>
        <_>
          4 13 16 4 2.</_></rects>
      <tilted>0</tilted></_>
    <_>
      <rects>
        <_>
          4 12 12 2 -1.</_>
        <_>
          4 12 6 1 2.</_>
        <_>
          10 13 6 1 2.</_></rects>
      <tilted>0</tilted></_>
    <_>
      <rects>
        <_>
          5 6 15 9 -1.</_>
        <_>
          5 9 15 3 3.</_></rects>
      <tilted>0</tilted></_>
    <_>
      <rects>
        <_>
          5 8 15 1 -1.</_>
        <_>
          10 8 5 1 3.</_></rects>
      <tilted>0</tilted></_>
    <_>
      <rects>
        <_>
          5 10 6 3 -1.</_>
        <_>
          7 10 2 3 3.</_></rects>
      <tilted>0</tilted></_>
    <_>
      <rects>
        <_>
          6 0 13 24 -1.</_>
        <_>
          6 8 13 8 3.</_></rects>
      <tilted>0</tilted></_>
    <_>
      <rects>
        <_>
          6 8 8 6 -1.</_>
        <_>
          10 8 4 6 2.</_></rects>
      <tilted>0</tilted></_>
    <_>
      <rects>
        <_>
          6 14 10 1 -1.</_>
        <_>
          11 14 5 1 2.</_></rects>
      <tilted>0</tilted></_>
    <_>
      <rects>
        <_>
          7 9 8 7 -1.</_>
        <_>
          11 9 4 7 2.</_></rects>
      <tilted>0</tilted></_>
    <_>
      <rects>
        <_>
          7 12 9 6 -1.</_>
        <_>
          7 14 9 2 3.</_></rects>
      <tilted>0</tilted></_>
    <_>
      <rects>
        <_>
          7 14 7 4 -1.</_>
        <_>
          7 16 7 2 2.</_></rects>
      <tilted>0</tilted></_>
    <_>
      <rects>
        <_>
          8 5 9 18 -1.</_>
        <_>
          8 11 9 6 3.</_></rects>
      <tilted>0</tilted></_>
    <_>
      <rects>
        <_>
          8 10 8 6 -1.</_>
        <_>
          8 13 8 3 2.</_></rects>
      <tilted>0</tilted></_>
    <_>
      <rects>
        <_>
          9 7 6 1 -1.</_>
        <_>
          11 7 2 1 3.</_></rects>
      <tilted>0</tilted></_>
    <_>
      <rects>
        <_>
          9 8 4 6 -1.</_>
        <_>
          9 11 4 3 2.</_></rects>
      <tilted>0</tilted></_>
    <_>
      <rects>
        <_>
          9 14 6 1 -1.</_>
        <_>
          11 14 2 1 3.</_></rects>
      <tilted>0</tilted></_>
    <_>
      <rects>
        <_>
          10 7 2 3 -1.</_>
        <_>
          10 8 2 1 3.</_></rects>
      <tilted>0</tilted></_>
    <_>
      <rects>
        <_>
          10 7 3 3 -1.</_>
        <_>
          10 8 3 1 3.</_></rects>
      <tilted>0</tilted></_>
    <_>
      <rects>
        <_>
          10 7 5 3 -1.</_>
        <_>
          10 8 5 1 3.</_></rects>
      <tilted>0</tilted></_>
    <_>
      <rects>
        <_>
          10 8 5 4 -1.</_>
        <_>
          10 10 5 2 2.</_></rects>
      <tilted>0</tilted></_>
    <_>
      <rects>
        <_>
          10 9 8 4 -1.</_>
        <_>
          14 9 4 4 2.</_></rects>
      <tilted>0</tilted></_>
    <_>
      <rects>
        <_>
          11 4 8 6 -1.</_>
        <_>
          11 4 4 3 2.</_>
        <_>
          15 7 4 3 2.</_></rects>
      <tilted>0</tilted></_>
    <_>
      <rects>
        <_>
          11 7 4 3 -1.</_>
        <_>
          11 8 4 1 3.</_></rects>
      <tilted>0</tilted></_>
    <_>
      <rects>
        <_>
          11 9 3 8 -1.</_>
        <_>
          11 13 3 4 2.</_></rects>
      <tilted>0</tilted></_>
    <_>
      <rects>
        <_>
          11 10 3 1 -1.</_>
        <_>
          12 10 1 1 3.</_></rects>
      <tilted>0</tilted></_>
    <_>
      <rects>
        <_>
          11 12 2 2 -1.</_>
        <_>
          11 13 2 1 2.</_></rects>
      <tilted>0</tilted></_>
    <_>
      <rects>
        <_>
          11 12 3 3 -1.</_>
        <_>
          11 13 3 1 3.</_></rects>
      <tilted>0</tilted></_>
    <_>
      <rects>
        <_>
          11 13 3 1 -1.</_>
        <_>
          12 13 1 1 3.</_></rects>
      <tilted>0</tilted></_>
    <_>
      <rects>
        <_>
          12 7 1 3 -1.</_>
        <_>
          12 8 1 1 3.</_></rects>
      <tilted>0</tilted></_>
    <_>
      <rects>
        <_>
          12 8 4 6 -1.</_>
        <_>
          12 11 4 3 2.</_></rects>
      <tilted>0</tilted></_>
    <_>
      <rects>
        <_>
          12 11 1 4 -1.</_>
        <_>
          12 13 1 2 2.</_></rects>
      <tilted>0</tilted></_>
    <_>
      <rects>
        <_>
          12 12 1 3 -1.</_>
        <_>
          12 13 1 1 3.</_></rects>
      <tilted>0</tilted></_>
    <_>
      <rects>
        <_>
          12 13 1 2 -1.</_>
        <_>
          12 14 1 1 2.</_></rects>
      <tilted>0</tilted></_>
    <_>
      <rects>
        <_>
          13 10 4 3 -1.</_>
        <_>
          15 10 2 3 2.</_></rects>
      <tilted>0</tilted></_>
    <_>
      <rects>
        <_>
          15 12 2 2 -1.</_>
        <_>
          16 12 1 2 2.</_></rects>
      <tilted>0</tilted></_>
    <_>
      <rects>
        <_>
          16 0 1 24 -1.</_>
        <_>
          16 8 1 8 3.</_></rects>
      <tilted>0</tilted></_>
    <_>
      <rects>
        <_>
          22 7 2 9 -1.</_>
        <_>
          23 7 1 9 2.</_></rects>
      <tilted>0</tilted></_></features></cascade>
</opencv_storage>
